digraph Tree {
node [shape=box, style="filled, rounded", color="black", fontname=helvetica] ;
edge [fontname=helvetica] ;
0 [label="mean concave points <= 0.051\nentropy = 0.952\nsamples = 455\nvalue = [169, 286]\nclass = benign", fillcolor="#aed7f4"] ;
1 [label="worst radius <= 16.83\nentropy = 0.314\nsamples = 282\nvalue = [16, 266]\nclass = benign", fillcolor="#45a3e7"] ;
0 -> 1 [labeldistance=2.5, labelangle=45, headlabel="True"] ;
2 [label="radius error <= 0.626\nentropy = 0.136\nsamples = 263\nvalue = [5, 258]\nclass = benign", fillcolor="#3d9fe6"] ;
1 -> 2 ;
3 [label="worst texture <= 30.145\nentropy = 0.091\nsamples = 260\nvalue = [3, 257]\nclass = benign", fillcolor="#3b9ee5"] ;
2 -> 3 ;
4 [label="entropy = 0.0\nsamples = 225\nvalue = [0, 225]\nclass = benign", fillcolor="#399de5"] ;
3 -> 4 ;
5 [label="entropy = 0.422\nsamples = 35\nvalue = [3, 32]\nclass = benign", fillcolor="#4ca6e7"] ;
3 -> 5 ;
6 [label="texture error <= 1.927\nentropy = 0.918\nsamples = 3\nvalue = [2, 1]\nclass = malignant", fillcolor="#f2c09c"] ;
2 -> 6 ;
7 [label="entropy = 0.0\nsamples = 1\nvalue = [0, 1]\nclass = benign", fillcolor="#399de5"] ;
6 -> 7 ;
8 [label="entropy = 0.0\nsamples = 2\nvalue = [2, 0]\nclass = malignant", fillcolor="#e58139"] ;
6 -> 8 ;
9 [label="mean texture <= 16.19\nentropy = 0.982\nsamples = 19\nvalue = [11, 8]\nclass = malignant", fillcolor="#f8ddc9"] ;
1 -> 9 ;
10 [label="entropy = 0.0\nsamples = 6\nvalue = [0, 6]\nclass = benign", fillcolor="#399de5"] ;
9 -> 10 ;
11 [label="concave points error <= 0.01\nentropy = 0.619\nsamples = 13\nvalue = [11, 2]\nclass = malignant", fillcolor="#ea985d"] ;
9 -> 11 ;
12 [label="entropy = 0.0\nsamples = 11\nvalue = [11, 0]\nclass = malignant", fillcolor="#e58139"] ;
11 -> 12 ;
13 [label="entropy = 0.0\nsamples = 2\nvalue = [0, 2]\nclass = benign", fillcolor="#399de5"] ;
11 -> 13 ;
14 [label="worst perimeter <= 114.45\nentropy = 0.517\nsamples = 173\nvalue = [153, 20]\nclass = malignant", fillcolor="#e89153"] ;
0 -> 14 [labeldistance=2.5, labelangle=-45, headlabel="False"] ;
15 [label="worst texture <= 25.655\nentropy = 0.994\nsamples = 44\nvalue = [24, 20]\nclass = malignant", fillcolor="#fbeade"] ;
14 -> 15 ;
16 [label="worst concave points <= 0.166\nentropy = 0.454\nsamples = 21\nvalue = [2, 19]\nclass = benign", fillcolor="#4ea7e8"] ;
15 -> 16 ;
17 [label="entropy = 0.0\nsamples = 19\nvalue = [0, 19]\nclass = benign", fillcolor="#399de5"] ;
16 -> 17 ;
18 [label="entropy = 0.0\nsamples = 2\nvalue = [2, 0]\nclass = malignant", fillcolor="#e58139"] ;
16 -> 18 ;
19 [label="perimeter error <= 1.558\nentropy = 0.258\nsamples = 23\nvalue = [22, 1]\nclass = malignant", fillcolor="#e68742"] ;
15 -> 19 ;
20 [label="entropy = 1.0\nsamples = 2\nvalue = [1, 1]\nclass = malignant", fillcolor="#ffffff"] ;
19 -> 20 ;
21 [label="entropy = 0.0\nsamples = 21\nvalue = [21, 0]\nclass = malignant", fillcolor="#e58139"] ;
19 -> 21 ;
22 [label="entropy = 0.0\nsamples = 129\nvalue = [129, 0]\nclass = malignant", fillcolor="#e58139"] ;
14 -> 22 ;
}